[{"id":0,"href":"/ko/docs/architecture/classical/","title":"Classical CV","section":"아키텍처","content":"Classical Computer Vision# 딥러닝 이전의 전통적인 컴퓨터 비전 기법들입니다.\n특징# 수작업으로 설계된 특징 추출기 (Hand-crafted features) 수학적으로 해석 가능한 알고리즘 적은 데이터로도 동작 계산 비용이 상대적으로 낮음 주요 기법# SIFT \u0026amp; HOG - 대표적인 특징 추출 기법 "},{"id":1,"href":"/ko/docs/architecture/classical/sift-hog/","title":"SIFT \u0026 HOG","section":"Classical CV","content":"SIFT \u0026amp; HOG# 개요# 딥러닝 이전 시대의 대표적인 특징 추출 기법입니다.\n기법 연도 핵심 아이디어 SIFT 2004 스케일 불변 키포인트 검출 HOG 2005 그래디언트 방향 히스토그램 SIFT (Scale-Invariant Feature Transform)# 핵심 아이디어# 이미지의 크기나 회전에 관계없이 동일한 특징점을 찾아내는 알고리즘입니다.\n동작 과정# Scale-space 생성: Gaussian blur를 다양한 스케일로 적용 DoG (Difference of Gaussian): 인접한 스케일 간 차이 계산 키포인트 검출: DoG에서 극값(extrema) 찾기 방향 할당: 키포인트 주변의 그래디언트 방향 계산 디스크립터 생성: 128차원 벡터로 특징 표현 수식# Gaussian blur: $$L(x, y, \\sigma) = G(x, y, \\sigma) * I(x, y)$$\nDifference of Gaussian: $$D(x, y, \\sigma) = L(x, y, k\\sigma) - L(x, y, \\sigma)$$\n특징# 장점: 스케일, 회전, 조명 변화에 강건 단점: 계산 비용이 높음, 실시간 처리 어려움 HOG (Histogram of Oriented Gradients)# 핵심 아이디어# 이미지를 셀 단위로 나누고, 각 셀에서 그래디언트 방향의 히스토그램을 계산합니다.\n동작 과정# 그래디언트 계산: 각 픽셀에서 x, y 방향 그래디언트 계산 셀 분할: 이미지를 8x8 픽셀 셀로 분할 히스토그램 생성: 각 셀에서 9개 방향(0°~180°)의 히스토그램 계산 블록 정규화: 2x2 셀을 하나의 블록으로 묶어 정규화 특징 벡터 생성: 모든 블록의 히스토그램을 연결 수식# 그래디언트 크기와 방향: $$G = \\sqrt{G_x^2 + G_y^2}$$ $$\\theta = \\arctan\\left(\\frac{G_y}{G_x}\\right)$$\n특징# 장점: 조명 변화에 강건, 계산이 상대적으로 빠름 단점: 스케일 변화에 민감 주요 용도: 보행자 검출 (Dalal \u0026amp; Triggs, 2005) 구현 예시# import cv2 # SIFT sift = cv2.SIFT_create() keypoints, descriptors = sift.detectAndCompute(image, None) # HOG hog = cv2.HOGDescriptor() hog.setSVMDetector(cv2.HOGDescriptor_getDefaultPeopleDetector()) boxes, weights = hog.detectMultiScale(image) 딥러닝과의 비교# 측면 SIFT/HOG CNN 특징 설계 수작업 학습 기반 데이터 요구량 적음 많음 성능 제한적 우수 해석 가능성 높음 낮음 일반화 제한적 우수 현재는 대부분의 태스크에서 딥러닝이 SIFT/HOG를 대체했지만, 특징 매칭이나 엣지 케이스에서는 여전히 사용됩니다.\n관련 콘텐츠# 선형대수 - 그래디언트 계산의 기초 CNN 기초 - SIFT/HOG를 대체한 딥러닝 기법 "},{"id":2,"href":"/ko/docs/timeline/","title":"타임라인","section":"Docs","content":"타임라인으로 배우는 Vision# 연대순으로 Computer Vision의 발전 과정을 따라가며 학습합니다.\n~2012: Classical Computer Vision# 선형대수 기하학 SIFT \u0026amp; HOG 2012-2015: CNN 시대의 시작# Convolution Backpropagation AlexNet VGG ResNet Classification 2015-2017: Detection \u0026amp; Segmentation# IoU \u0026amp; NMS YOLO Faster R-CNN U-Net Detection Segmentation 2017-2019: Attention의 등장# Attention Transformer 2020-2021: Vision Transformer \u0026amp; CLIP# ViT CLIP Contrastive Learning Self-supervised Learning 2021-2022: Diffusion 시대# Diffusion Process Stable Diffusion Generation 2023: Controllable Generation \u0026amp; SAM# ControlNet SAM 2023-2024: VLM \u0026amp; DiT# VLM DiT Vision-Language 2024-현재: 3D \u0026amp; Video Generation# NeRF 3D Gaussian Splatting 3D Vision "},{"id":3,"href":"/ko/docs/topdown/","title":"Top-Down","section":"Docs","content":"Top-Down 학습# 문제를 정하고, 필요한 지식을 찾아갑니다.\nImage Classification# Cross-entropy Loss CNN 기초 ResNet Classification Object Detection# IoU \u0026amp; NMS Anchor Box Faster R-CNN YOLO Detection Segmentation# Transposed Convolution U-Net Mask R-CNN Segmentation Image Generation# 확률분포 VAE GAN Diffusion Stable Diffusion ControlNet DiT Generation Vision-Language (VLM)# Contrastive Learning CLIP VLM Vision-Language 3D Vision# 카메라 모델 NeRF 3D Vision 모델 배포# Quantization Deployment "},{"id":4,"href":"/ko/docs/bottomup/","title":"Bottom-Up","section":"Docs","content":"Bottom-Up 학습# 기초 개념부터 차근차근 쌓아올립니다.\nLevel 1: 수학 기초# 선형대수 미적분 \u0026amp; Chain Rule 확률/통계 Level 2: 딥러닝 기초# Convolution Backpropagation Loss Functions Optimization Level 3: 기본 아키텍처# CNN 기초 AlexNet VGG ResNet Level 4: 기본 태스크# Classification Detection Segmentation Level 5: 고급 개념# Attention Transformer ViT Level 6: 생성 모델# Diffusion Process Stable Diffusion ControlNet DiT Generation Level 7: Multimodal \u0026amp; 3D# Contrastive Learning CLIP VLM Vision-Language NeRF 3D Vision "},{"id":5,"href":"/ko/docs/math/","title":"수학","section":"Docs","content":"수학 기초# Vision 엔지니어에게 필요한 수학 지식입니다.\n"},{"id":6,"href":"/ko/docs/architecture/","title":"아키텍처","section":"Docs","content":"아키텍처# Computer Vision 모델 및 네트워크 구조입니다.\n카테고리# Classical CV - SIFT, HOG 등 전통적 특징 추출 CNN - Convolutional Neural Network 계열 Detection - 객체 탐지 모델 Segmentation - 세그멘테이션 모델 Transformer - Transformer 기반 모델 Generative - 생성 모델 Multimodal - 멀티모달 모델 3D - 3D 비전 모델 "},{"id":7,"href":"/ko/docs/task/","title":"태스크","section":"Docs","content":"태스크# 문제 정의, 평가지표, 데이터셋입니다.\n"},{"id":8,"href":"/ko/docs/etc/","title":"기타 자료","section":"Docs","content":"논문 \u0026amp; 자료# 필수 논문과 학습 자료 모음입니다.\n"}]